\data\
ngram 1=188
ngram 2=421
ngram 3=494

\1-grams:
-2.5709925	<unk>	0
0	<s>	-1.3904198
-1.2054702	</s>	0
-1.3937318	call	-1.6
-1.3937318	what	-1.6
-1.3937318	is	-1.6
-1.3937318	be	-1.6
-1.3937318	tell	-1.6
-1.3937318	a	-1.6
-1.3937318	show	-1.6
-1.3937318	abeg	-1.6
-1.3937318	now	-1.6
-1.3937318	kukuma	-1.6
-1.3937318	i	-1.6
-1.3937318	wan	-1.6
-1.3937318	me	-1.6
-1.3937318	phone	-1.6
-1.3937318	make	-1.6
-1.3937318	you	-1.6
-1.3937318	reach	-1.6
-1.3937318	contact	-1.6
-1.3937318	get	-1.6
-1.3937318	for	-1.6
-1.3937318	card	-1.6
-1.3937318	give	-1.6
-1.3937318	sabi	-1.6
-1.3937318	one	-1.6
-1.3937318	two	-1.6
-1.3937318	three	-1.6
-1.3937318	four	-1.6
-1.3937318	five	-1.6
-1.3937318	by	-1.6
-1.3937318	just	-1.6
-1.3937318	dail	-1.6
-1.3937318	ring	-1.6
-1.3937318	fone	-1.6
-1.3937318	word	-1.6
-1.3937318	oya	-1.6
-1.3937318	dey	-1.6
-1.3937318	press	-1.6
-1.3937318	abeg	-1.6
-1.3937318	follow	-1.6
-1.3937318	up	-1.6
-1.3937318	try	-1.6
-1.3937318	yan	-1.6
-1.3937318	with	-1.6
-1.3937318	house	-1.6
-1.3937318	number	-1.6
-1.3937318	am	-1.6
-1.3937318	dial	-1.6
-1.3937318	social	-1.6
-1.3937318	gaming	-1.6
-1.3937318	news	-1.6
-1.3937318	shopping	-1.6
-1.3937318	entertainment	-1.6
-1.3937318	finance	-1.6
-1.3937318	life	-1.6
-1.3937318	tools	-1.6
-1.3937318	delete	-1.6
-1.3937318	remove	-1.6
-1.3937318	wipe	-1.6
-1.3937318	tro	-1.6
-1.3937318	way	-1.6
-1.3937318	won	-1.6
-1.3937318	download	-1.6
-1.3937318	this	-1.6
-1.3937318	na	-1.6
-1.3937318	dis	-1.6
-1.3937318	open	-1.6
-1.3937318	turn	-1.6
-1.3937318	on	-1.6
-1.3937318	again	-1.6
-1.3937318	put	-1.6
-1.3937318	the	-1.6
-1.3937318	app	-1.6
-1.3937318	re	-1.6
-1.3937318	reopen	-1.6
-1.3937318	search	-1.6
-1.3937318	find	-1.6
-1.3937318	look	-1.6
-1.3937318	results	-1.6
-1.3937318	de	-1.6
-1.3937318	version	-1.6
-1.3937318	wey	-1.6
-1.3937318	new	-1.6
-1.3937318	pass	-1.6
-1.3937318	of	-1.6
-1.3937318	renew	-1.6
-1.3937318	renewal	-1.6
-1.3937318	do	-1.6
-1.3937318	update	-1.6
-1.3937318	newest	-1.6
-1.3937318	verson	-1.6
-1.3937318	most	-1.6
-1.3937318	recent	-1.6
-1.3937318	have	-1.6
-1.3937318	pick	-1.6
-1.3937318	latest	-1.6
-1.3937318	verison	-1.6
-1.3937318	geh	-1.6
-1.3937318	bluetooth	-1.6
-1.3937318	wlan	-1.6
-1.3937318	compass	-1.6
-1.3937318	gmail	-1.6
-1.3937318	spot	-1.6
-1.3937318	carlcare	-1.6
-1.3937318	bookmarks	-1.6
-1.3937318	media	-1.6
-1.3937318	contacts	-1.6
-1.3937318	video	-1.6
-1.3937318	chrome	-1.6
-1.3937318	google	-1.6
-1.3937318	calendar	-1.6
-1.3937318	font	-1.6
-1.3937318	messaging	-1.6
-1.3937318	settings	-1.6
-1.3937318	maps	-1.6
-1.3937318	palm	-1.6
-1.3937318	smart	-1.6
-1.3937318	assist	-1.6
-1.3937318	weather	-1.6
-1.3937318	battery	-1.6
-1.3937318	and	-1.6
-1.3937318	vessel	-1.6
-1.3937318	play	-1.6
-1.3937318	pebble	-1.6
-1.3937318	telephony	-1.6
-1.3937318	tecno	-1.6
-1.3937318	messages	-1.6
-1.3937318	wallpapers	-1.6
-1.3937318	cutout	-1.6
-1.3937318	drive	-1.6
-1.3937318	files	-1.6
-1.3937318	notepad	-1.6
-1.3937318	calculator	-1.6
-1.3937318	storage	-1.6
-1.3937318	translate	-1.6
-1.3937318	services	-1.6
-1.3937318	manual	-1.6
-1.3937318	manager	-1.6
-1.3937318	music	-1.6
-1.3937318	corner	-1.6
-1.3937318	xhide	-1.6
-1.3937318	panel	-1.6
-1.3937318	clock	-1.6
-1.3937318	flashlight	-1.6
-1.3937318	master	-1.6
-1.3937318	youtube	-1.6
-1.3937318	store	-1.6
-1.3937318	broadcast	-1.6
-1.3937318	player	-1.6
-1.3937318	guide	-1.6
-1.3937318	lab	-1.6
-1.3937318	recorder	-1.6
-1.3937318	service	-1.6
-1.3937318	lets	-1.6
-1.3937318	switch	-1.6
-1.3937318	scanner	-1.6
-1.3937318	hiparty	-1.6
-1.3937318	xshare	-1.6
-1.3937318	off	-1.6
-1.3937318	close	-1.6
-1.3937318	freezer	-1.6
-1.3937318	file	-1.6
-1.3937318	hi	-1.6
-1.3937318	theme	-1.6
-1.3937318	games	-1.6
-1.3937318	ella	-1.6
-1.3937318	palmpay	-1.6
-1.3937318	phoenix	-1.6
-1.3937318	scooper	-1.6
-1.3937318	sim	-1.6
-1.3937318	toolkit	-1.6
-1.3937318	welife	-1.6
-1.3937318	data	-1.6
-1.3937318	connection	-1.6
-1.3937318	aha	-1.6
-1.3937318	browser	-1.6
-1.3937318	ai	-1.6
-1.3937318	gallery	-1.6
-1.3937318	what's	-1.6
-1.3937318	book	-1.6
-1.3937318	check	-1.6
-1.3937318	know	-1.6
-1.3937318	wetin	-1.6
-1.3937318	to	-1.6

\2-grams:
-0.5775585	search for	-1.5
-0.5775585	what is	-1.5
-0.5775585	show me	-1.5
-0.5775585	look up	-1.5
-0.5775585	search phone	-1.5
-0.5775585	phone book	-1.5
-0.5775585	book for	-1.5
-0.5775585	look for	-1.5
-0.5775585	wetin be	-1.5
-0.5775585	tell me	-1.5
-0.5775585	give a	-1.5
-0.5775585	make a	-1.5
-0.5775585	a phone	-1.5
-0.5775585	phone call	-1.5
-0.5775585	call to	-1.5
-0.5775585	<s> give	-1.5
-0.5775585	games </s>	0
-0.5775585	ella </s>	0
-0.5775585	palmpay </s>	0
-0.5775585	phoenix </s>	0
-0.5775585	news </s>	0
-0.5775585	toolkit </s>	0
-0.5775585	welife </s>	0
-0.5775585	off </s>	0
-0.5775585	open aha	-1.5
-0.5775585	on aha	-1.5
-0.5775585	aha games	-1.5
-0.5775585	open ella	-1.5
-0.5775585	on ella	-1.5
-0.5775585	open palmpay	-1.5
-0.5775585	on palmpay	-1.5
-0.5775585	open phoenix	-1.5
-0.5775585	on phoenix	-1.5
-0.5775585	open scooper	-1.5
-0.5775585	on scooper	-1.5
-0.5775585	scooper news	-1.5
-0.5775585	open sim	-1.5
-0.5775585	on sim	-1.5
-0.5775585	sim toolkit	-1.5
-0.5775585	open welife	-1.5
-0.5775585	on welife	-1.5
-0.5775585	the data	-1.5
-0.5775585	off the	-1.5
-0.5775585	data connection	-1.5
-0.5775585	connection off	-1.5
-0.5775585	open chrome	-1.5
-0.5775585	theme </s>	0
-0.5775585	hi theme	1.5
-0.5775585	youtube </s>	0
-0.5775585	translate </s>	0
-0.5775585	cutout </s>	0
-0.5775585	storage </s>	0
-0.5775585	pebble </s>	0
-0.5775585	google </s>	0
-0.5775585	service </s>	0
-0.5775585	master </s>	0
-0.5775585	calendar </s>	0
-0.5775585	guide </s>	0
-0.5775585	assist </s>	0
-0.5775585	bookmarks </s>	0
-0.5775585	manager </s>	0
-0.5775585	player </s>	0
-0.5775585	vessel </s>	0
-0.5775585	store </s>	0
-0.5775585	gmail </s>	0
-0.5775585	xhide </s>	0
-0.5775585	settings </s>	0
-0.5775585	maps </s>	0
-0.5775585	drive </s>	0
-0.5775585	weather </s>	0
-0.5775585	chrome </s>	0
-0.5775585	carlcare </s>	0
-0.5775585	services </s>	0
-0.5775585	lab </s>	0
-0.5775585	files </s>	0
-0.5775585	recorder </s>	0
-0.5775585	panel </s>	0
-0.5775585	music </s>	0
-0.5775585	spot </s>	0
-0.5775585	compass </s>	0
-0.5775585	clock </s>	0
-0.5775585	calculator </s>	0
-0.5775585	notepad </s>	0
-0.5775585	wallpapers </s>	0
-0.5775585	flashlight </s>	0
-0.5775585	freezer </s>	0
-0.5775585	switch </s>	0
-0.5775585	scanner </s>	0
-0.5775585	hiparty </s>	0
-0.5775585	xshare </s>	0
-0.5775585	phone master	-1.5
-0.5775585	calendar storage	-1.5
-0.5775585	manual guide	-1.5
-0.5775585	telephony assist	-1.5
-0.5775585	font manager	-1.5
-0.5775585	video player	-1.5
-0.5775585	battery lab	-1.5
-0.5775585	call recorder	-1.5
-0.5775585	palm store	-1.5
-0.5775585	smart panel	-1.5
-0.5775585	youtube music	-1.5
-0.5775585	tecno spot	-1.5
-0.5775585	media storage	-1.5
-0.5775585	file manager	-1.5
-0.5775585	lets switch	-1.5
-0.5775585	smart scanner	-1.5
-0.5775585	hi translate	1.5
-0.5775585	google play	1.5
-0.5775585	play store	1.5
-0.5775585	play services	1.5
-0.5775585	corner cutout	1.5
-0.5775585	messaging storage	1.5
-0.5775585	broadcast service	1.5
-0.5775585	abeg </s>	0
-0.5775585	bluetooth </s>	0
-0.5775585	wlan </s>	0
-0.5775585	on bluetooth	-1.5
-0.5775585	on wlan	1.5
-0.5775585	open bluetooth	-1.5
-0.5775585	open wlan	-1.5
-0.5775585	now </s>	0
-0.5775585	one </s>	0
-0.5775585	two </s>	0
-0.5775585	three </s>	0
-0.5775585	four </s>	0
-0.5775585	five </s>	0
-0.5775585	oya </s>	0
-0.5775585	abeg </s>	0
-0.5775585	social </s>	0
-0.5775585	gaming </s>	0
-0.5775585	news </s>	0
-0.5775585	shopping </s>	0
-0.5775585	entertainment </s>	0
-0.5775585	finance </s>	0
-0.5775585	life </s>	0
-0.5775585	tools </s>	0
-0.5775585	na </s>	0
-0.5775585	on </s>	0
-0.5775585	again </s>	0
-0.5775585	app </s>	0
-0.5775585	pass </s>	0
-0.5775585	<s> call	-1.5
-0.5775585	abeg call	-1.5
-0.5775585	now call	-1.5
-0.5775585	kukuma call	-1.5
-0.5775585	wan call	-1.5
-0.5775585	you call	-1.5
-0.5775585	get call	-1.5
-0.5775585	just call	-1.5
-0.5775585	oya call	-1.5
-0.5775585	dey call	-1.5
-0.5775585	<s> abeg	-1.5
-0.5775585	one abeg	-1.5
-0.5775585	two abeg	-1.5
-0.5775585	three abeg	-1.5
-0.5775585	four abeg	-1.5
-0.5775585	five abeg	-1.5
-0.5775585	<s> now	-1.5
-0.5775585	one now	-1.5
-0.5775585	two now	-1.5
-0.5775585	three now	-1.5
-0.5775585	four now	-1.5
-0.5775585	five now	-1.5
-0.5775585	again now	-1.5
-0.5775585	<s> kukuma	-1.5
-0.5775585	<s> i	-1.5
-0.5775585	make i	-1.5
-0.5775585	i wan	-1.5
-0.5775585	me wan	-1.5
-0.5775585	<s> me	-1.5
-0.5775585	<s> phone	-1.5
-0.5775585	wan phone	-1.5
-0.5775585	oya phone	-1.5
-0.5775585	<s> make	-1.5
-0.5775585	abeg make	-1.5
-0.5775585	make you	-1.5
-0.5775585	<s> reach	-1.5
-0.5775585	abeg reach	-1.5
-0.5775585	kukuma reach	-1.5
-0.5775585	wan reach	-1.5
-0.5775585	you reach	-1.5
-0.5775585	just reach	-1.5
-0.5775585	try reach	-1.5
-0.5775585	<s> contact	-1.5
-0.5775585	kukuma contact	-1.5
-0.5775585	wan contact	-1.5
-0.5775585	dey contact	-1.5
-0.5775585	try contact	-1.5
-0.5775585	<s> get	-1.5
-0.5775585	abeg get	-1.5
-0.5775585	wan get	-1.5
-0.5775585	<s> for	-1.5
-0.5775585	now for	-1.5
-0.5775585	find for	-1.5
-0.5775585	look for	-1.5
-0.5775585	results for	-1.5
-0.5775585	version for	-1.5
-0.5775585	renewal for	-1.5
-0.5775585	update for	-1.5
-0.5775585	for card	-1.5
-0.5775585	by card	-1.5
-0.5775585	with card	-1.5
-0.5775585	card one	-1.5
-0.5775585	dis one	-1.5
-0.5775585	card two	-1.5
-0.5775585	card three	-1.5
-0.5775585	card four	-1.5
-0.5775585	card five	-1.5
-0.5775585	<s> by	-1.5
-0.5775585	now by	-1.5
-0.5775585	<s> just	-1.5
-0.5775585	abeg dail	-1.5
-0.5775585	<s> ring	-1.5
-0.5775585	wan ring	-1.5
-0.5775585	<s> fone	-1.5
-0.5775585	wan fone	-1.5
-0.5775585	oya fone	-1.5
-0.5775585	dey fone	-1.5
-0.5775585	<s> word	-1.5
-0.5775585	abeg word	-1.5
-0.5775585	dey word	-1.5
-0.5775585	try word	-1.5
-0.5775585	<s> oya	-1.5
-0.5775585	<s> dey	-1.5
-0.5775585	abeg dey	-1.5
-0.5775585	i dey	-1.5
-0.5775585	wan dey	-1.5
-0.5775585	<s> press	-1.5
-0.5775585	abeg press	-1.5
-0.5775585	wan press	-1.5
-0.5775585	oya press	-1.5
-0.5775585	dey press	-1.5
-0.5775585	<s> follow	-1.5
-0.5775585	abeg follow	-1.5
-0.5775585	wan follow	-1.5
-0.5775585	dey follow	-1.5
-0.5775585	try follow	-1.5
-0.5775585	follow up	-1.5
-0.5775585	<s> try	-1.5
-0.5775585	abeg try	-1.5
-0.5775585	wan try	-1.5
-0.5775585	just try	-1.5
-0.5775585	dey try	-1.5
-0.5775585	<s> yan	-1.5
-0.5775585	try yan	-1.5
-0.5775585	word with	-1.5
-0.5775585	yan with	-1.5
-0.5775585	<s> house	-1.5
-0.5775585	house number	-1.5
-0.5775585	call am	-1.5
-0.5775585	<s> dial	-1.5
-0.5775585	abeg dial	-1.5
-0.5775585	now dial	-1.5
-0.5775585	wan dial	-1.5
-0.5775585	just dial	-1.5
-0.5775585	<s> social	-1.5
-0.5775585	for social	-1.5
-0.5775585	put social	-1.5
-0.5775585	<s> gaming	-1.5
-0.5775585	for gaming	-1.5
-0.5775585	put gaming	-1.5
-0.5775585	<s> news	-1.5
-0.5775585	for news	-1.5
-0.5775585	put news	-1.5
-0.5775585	<s> shopping	-1.5
-0.5775585	for shopping	-1.5
-0.5775585	put shopping	-1.5
-0.5775585	<s> entertainment	-1.5
-0.5775585	for entertainment	-1.5
-0.5775585	put entertainment	-1.5
-0.5775585	<s> finance	-1.5
-0.5775585	for finance	-1.5
-0.5775585	put finance	-1.5
-0.5775585	<s> life	-1.5
-0.5775585	for life	-1.5
-0.5775585	put life	-1.5
-0.5775585	<s> tools	-1.5
-0.5775585	for tools	-1.5
-0.5775585	put tools	-1.5
-0.5775585	wan delete	-1.5
-0.5775585	i remove	-1.5
-0.5775585	wan remove	-1.5
-0.5775585	<s> wipe	-1.5
-0.5775585	i wipe	-1.5
-0.5775585	won wipe	-1.5
-0.5775585	<s> tro	-1.5
-0.5775585	i tro	-1.5
-0.5775585	won tro	-1.5
-0.5775585	tro way	-1.5
-0.5775585	i won	-1.5
-0.5775585	<s> download	-1.5
-0.5775585	i download	-1.5
-0.5775585	wan download	-1.5
-0.5775585	won download	-1.5
-0.5775585	download this	-1.5
-0.5775585	na na	-1.5
-0.5775585	download dis	-1.5
-0.5775585	<s> open	-1.5
-0.5775585	wan open	-1.5
-0.5775585	won open	-1.5
-0.5775585	re open	-1.5
-0.5775585	wan turn	-1.5
-0.5775585	won on	-1.5
-0.5775585	turn on	-1.5
-0.5775585	<s> put	-1.5
-0.5775585	wan put	-1.5
-0.5775585	won put	-1.5
-0.5775585	<s> the	-1.5
-0.5775585	get the	-1.5
-0.5775585	for the	-1.5
-0.5775585	put the	-1.5
-0.5775585	find the	-1.5
-0.5775585	renew the	-1.5
-0.5775585	do the	-1.5
-0.5775585	have the	-1.5
-0.5775585	geh the	-1.5
-0.5775585	social app	-1.5
-0.5775585	gaming app	-1.5
-0.5775585	news app	-1.5
-0.5775585	shopping app	-1.5
-0.5775585	entertainment app	-1.5
-0.5775585	finance app	-1.5
-0.5775585	life app	-1.5
-0.5775585	tools app	-1.5
-0.5775585	<s> re	-1.5
-0.5775585	wan reopen	-1.5
-0.5775585	wan search	-1.5
-0.5775585	<s> find	-1.5
-0.5775585	wan find	-1.5
-0.5775585	dey find	-1.5
-0.5775585	won find	-1.5
-0.5775585	wan look	-1.5
-0.5775585	find results	-1.5
-0.5775585	find de	-1.5
-0.5775585	get version	-1.5
-0.5775585	recent version	-1.5
-0.5775585	latest version	-1.5
-0.5775585	version wey	-1.5
-0.5775585	wey new	-1.5
-0.5775585	new pass	-1.5
-0.5775585	version of	-1.5
-0.5775585	renewal of	-1.5
-0.5775585	update of	-1.5
-0.5775585	verson of	-1.5
-0.5775585	<s> renew	-1.5
-0.5775585	wan renew	-1.5
-0.5775585	won renew	-1.5
-0.5775585	the renewal	-1.5
-0.5775585	do renewal	-1.5
-0.5775585	<s> do	-1.5
-0.5775585	abeg do	-1.5
-0.5775585	wan do	-1.5
-0.5775585	just do	-1.5
-0.5775585	the update	-1.5
-0.5775585	latest update	-1.5
-0.5775585	geh update	-1.5
-0.5775585	the newest	-1.5
-0.5775585	newest verson	-1.5
-0.5775585	the most	-1.5
-0.5775585	most recent	-1.5
-0.5775585	abeg have	-1.5
-0.5775585	wan have	-1.5
-0.5775585	<s> pick	-1.5
-0.5775585	pick latest	-1.5
-0.5775585	the verison	-1.5
-0.5775585	<s> geh	-1.5
-0.5775585	you geh	-1.5
-0.5775585	won geh	-1.5

\3-grams:
-0.4792529	one abeg </s>
-0.4792529	two abeg </s>
-0.4792529	three abeg </s>
-0.4792529	four abeg </s>
-0.4792529	five abeg </s>
-0.4792529	one now </s>
-0.4792529	two now </s>
-0.4792529	three now </s>
-0.4792529	four now </s>
-0.4792529	five now </s>
-0.4792529	again now </s>
-0.4792529	card one </s>
-0.4792529	card two </s>
-0.4792529	card three </s>
-0.4792529	card four </s>
-0.4792529	card five </s>
-0.4792529	<s> social </s>
-0.4792529	<s> gaming </s>
-0.4792529	<s> news </s>
-0.4792529	<s> shopping </s>
-0.4792529	<s> entertainment </s>
-0.4792529	<s> finance </s>
-0.4792529	<s> life </s>
-0.4792529	<s> tools </s>
-0.4792529	na na </s>
-0.4792529	social app </s>
-0.4792529	gaming app </s>
-0.4792529	news app </s>
-0.4792529	shopping app </s>
-0.4792529	entertainment app </s>
-0.4792529	finance app </s>
-0.4792529	life app </s>
-0.4792529	tools app </s>
-0.4792529	new pass </s>
-0.4792529	<s> abeg call
-0.4792529	<s> now call
-0.4792529	<s> kukuma call
-0.4792529	i wan call
-0.4792529	make you call
-0.4792529	wan get call
-0.4792529	<s> just call
-0.4792529	<s> oya call
-0.4792529	<s> dey call
-0.4792529	card one abeg
-0.4792529	card two abeg
-0.4792529	card three abeg
-0.4792529	card four abeg
-0.4792529	card five abeg
-0.4792529	card one now
-0.4792529	card two now
-0.4792529	card three now
-0.4792529	card four now
-0.4792529	card five now
-0.4792529	<s> make i
-0.4792529	<s> i wan
-0.4792529	<s> me wan
-0.4792529	me wan phone
-0.4792529	<s> oya phone
-0.4792529	<s> abeg make
-0.4792529	<s> make you
-0.4792529	abeg make you
-0.4792529	<s> abeg reach
-0.4792529	<s> kukuma reach
-0.4792529	i wan reach
-0.4792529	me wan reach
-0.4792529	make you reach
-0.4792529	<s> just reach
-0.4792529	<s> try reach
-0.4792529	abeg try reach
-0.4792529	wan try reach
-0.4792529	just try reach
-0.4792529	dey try reach
-0.4792529	<s> kukuma contact
-0.4792529	i wan contact
-0.4792529	me wan contact
-0.4792529	<s> dey contact
-0.4792529	<s> try contact
-0.4792529	wan try contact
-0.4792529	<s> abeg get
-0.4792529	i wan get
-0.4792529	me wan get
-0.4792529	wan find for
-0.4792529	wan look for
-0.4792529	find results for
-0.4792529	latest version for
-0.4792529	the renewal for
-0.4792529	do renewal for
-0.4792529	the update for
-0.4792529	latest update for
-0.4792529	geh update for
-0.4792529	<s> for card
-0.4792529	now for card
-0.4792529	<s> by card
-0.4792529	now by card
-0.4792529	for card one
-0.4792529	by card one
-0.4792529	with card one
-0.4792529	download dis one
-0.4792529	for card two
-0.4792529	by card two
-0.4792529	for card three
-0.4792529	by card three
-0.4792529	for card four
-0.4792529	by card four
-0.4792529	for card five
-0.4792529	by card five
-0.4792529	<s> abeg dail
-0.4792529	me wan ring
-0.4792529	i wan fone
-0.4792529	<s> oya fone
-0.4792529	<s> dey fone
-0.4792529	<s> abeg word
-0.4792529	<s> dey word
-0.4792529	wan dey word
-0.4792529	wan try word
-0.4792529	dey try word
-0.4792529	<s> abeg dey
-0.4792529	<s> i dey
-0.4792529	i wan dey
-0.4792529	<s> abeg press
-0.4792529	i wan press
-0.4792529	<s> oya press
-0.4792529	<s> dey press
-0.4792529	wan dey press
-0.4792529	<s> abeg follow
-0.4792529	i wan follow
-0.4792529	<s> dey follow
-0.4792529	dey try follow
-0.4792529	<s> follow up
-0.4792529	abeg follow up
-0.4792529	wan follow up
-0.4792529	try follow up
-0.4792529	<s> abeg try
-0.4792529	i wan try
-0.4792529	<s> just try
-0.4792529	<s> dey try
-0.4792529	abeg dey try
-0.4792529	wan dey try
-0.4792529	dey try yan
-0.4792529	dey word with
-0.4792529	try word with
-0.4792529	try yan with
-0.4792529	<s> house number
-0.4792529	<s> call am
-0.4792529	<s> abeg dial
-0.4792529	<s> now dial
-0.4792529	i wan dial
-0.4792529	<s> just dial
-0.4792529	results for social
-0.4792529	<s> put social
-0.4792529	results for gaming
-0.4792529	<s> put gaming
-0.4792529	results for news
-0.4792529	<s> put news
-0.4792529	results for shopping
-0.4792529	<s> put shopping
-0.4792529	results for entertainment
-0.4792529	<s> put entertainment
-0.4792529	results for finance
-0.4792529	<s> put finance
-0.4792529	results for life
-0.4792529	<s> put life
-0.4792529	results for tools
-0.4792529	<s> put tools
-0.4792529	i wan delete
-0.4792529	make i remove
-0.4792529	i wan remove
-0.4792529	make i wipe
-0.4792529	i won wipe
-0.4792529	make i tro
-0.4792529	i won tro
-0.4792529	<s> tro way
-0.4792529	i tro way
-0.4792529	won tro way
-0.4792529	<s> i won
-0.4792529	make i download
-0.4792529	i wan download
-0.4792529	i won download
-0.4792529	wan download this
-0.4792529	won download dis
-0.4792529	i wan open
-0.4792529	i won open
-0.4792529	<s> re open
-0.4792529	i wan turn
-0.4792529	i won on
-0.4792529	wan turn on
-0.4792529	i wan put
-0.4792529	i won put
-0.4792529	abeg get the
-0.4792529	wan get the
-0.4792529	look for the
-0.4792529	update for the
-0.4792529	wan put the
-0.4792529	won put the
-0.4792529	wan find the
-0.4792529	<s> renew the
-0.4792529	<s> do the
-0.4792529	abeg do the
-0.4792529	wan do the
-0.4792529	just do the
-0.4792529	abeg have the
-0.4792529	wan have the
-0.4792529	won geh the
-0.4792529	for social app
-0.4792529	put social app
-0.4792529	for gaming app
-0.4792529	put gaming app
-0.4792529	for news app
-0.4792529	put news app
-0.4792529	for shopping app
-0.4792529	put shopping app
-0.4792529	for entertainment app
-0.4792529	put entertainment app
-0.4792529	for finance app
-0.4792529	put finance app
-0.4792529	for life app
-0.4792529	put life app
-0.4792529	for tools app
-0.4792529	put tools app
-0.4792529	i wan reopen
-0.4792529	i wan search
-0.4792529	i wan find
-0.4792529	i dey find
-0.4792529	i won find
-0.4792529	i wan look
-0.4792529	dey find results
-0.4792529	<s> find de
-0.4792529	won find de
-0.4792529	<s> get version
-0.4792529	most recent version
-0.4792529	pick latest version
-0.4792529	get version wey
-0.4792529	version wey new
-0.4792529	wey new pass
-0.4792529	get version of
-0.4792529	recent version of
-0.4792529	the renewal of
-0.4792529	the update of
-0.4792529	newest verson of
-0.4792529	i wan renew
-0.4792529	i won renew
-0.4792529	<s> the renewal
-0.4792529	get the renewal
-0.4792529	do the renewal
-0.4792529	have the renewal
-0.4792529	geh the renewal
-0.4792529	wan do renewal
-0.4792529	<s> abeg do
-0.4792529	i wan do
-0.4792529	<s> just do
-0.4792529	do the update
-0.4792529	have the update
-0.4792529	pick latest update
-0.4792529	<s> geh update
-0.4792529	you geh update
-0.4792529	won geh update
-0.4792529	get the newest
-0.4792529	the newest verson
-0.4792529	get the most
-0.4792529	the most recent
-0.4792529	<s> abeg have
-0.4792529	i wan have
-0.4792529	<s> pick latest
-0.4792529	for the verison
-0.4792529	make you geh
-0.4792529	i won geh
-0.4792529	on bluetooth </s>
-0.4792529	on wlan </s>
-0.4792529	open bluetooth </s>
-0.4792529	open wlan </s>
-0.4792529	turn on bluetooth
-0.4792529	turn on wlan
-0.4792529	hi translate </s>
-0.4792529	corner cutout </s>
-0.4792529	messaging storage </s>
-0.4792529	calendar storage </s>
-0.4792529	media storage </s>
-0.4792529	broadcast service </s>
-0.4792529	phone master </s>
-0.4792529	manual guide </s>
-0.4792529	telephony assist </s>
-0.4792529	video player </s>
-0.4792529	play store </s>
-0.4792529	palm store </s>
-0.4792529	play services </s>
-0.4792529	battery lab </s>
-0.4792529	smart panel </s>
-0.4792529	youtube music </s>
-0.4792529	tecno spot </s>
-0.4792529	lets switch </s>
-0.4792529	smart scanner </s>
-0.4792529	google play store
-0.4792529	google play services
-0.4792529	hi theme </s>
-0.4792529	aha games </s>
-0.4792529	open ella </s>
-0.4792529	on ella </s>
-0.4792529	open palmpay </s>
-0.4792529	on palmpay </s>
-0.4792529	open phoenix </s>
-0.4792529	on phoenix </s>
-0.4792529	scooper news </s>
-0.4792529	sim toolkit </s>
-0.4792529	open welife </s>
-0.4792529	<s> open aha
-0.4792529	turn on aha
-0.4792529	open aha games
-0.4792529	on aha games
-0.4792529	open chrome </s>
-0.4792529	give a call
-0.4792529	give a phone
-0.4792529	search phone book
-0.4792529	phone book for
-0.4792529	<s> make a
-0.4792529	<s> give a
-0.4792529	make a phone
-0.4792529	a phone call
-0.4792529	phone call to

\end\
